<?xml version="1.0"?>
<opencv_storage>
<stage6>
  <maxWeakCount>7</maxWeakCount>
  <stageThreshold>-3.2128763198852539e-01</stageThreshold>
  <weakClassifiers>
    <_>
      <internalNodes>
        0 -1 1369984 -3.6912509240210056e-03</internalNodes>
      <leafValues>
        5.3110045194625854e-01 -7.9539644718170166e-01</leafValues></_>
    <_>
      <internalNodes>
        0 -1 1205123 8.9089870452880859e-03</internalNodes>
      <leafValues>
        -8.5631865262985229e-01 4.2503869533538818e-01</leafValues></_>
    <_>
      <internalNodes>
        0 -1 23434 -9.8200626671314240e-02</internalNodes>
      <leafValues>
        6.1667722463607788e-01 -6.4753454923629761e-01</leafValues></_>
    <_>
      <internalNodes>
        0 -1 1031152 7.1177110075950623e-03</internalNodes>
      <leafValues>
        -7.8683513402938843e-01 5.8013355731964111e-01</leafValues></_>
    <_>
      <internalNodes>
        0 -1 35785 8.6545394733548164e-03</internalNodes>
      <leafValues>
        -6.8967032432556152e-01 6.4356213808059692e-01</leafValues></_>
    <_>
      <internalNodes>
        0 -1 835 -8.6317621171474457e-03</internalNodes>
      <leafValues>
        4.4715473055839539e-01 -8.4827971458435059e-01</leafValues></_>
    <_>
      <internalNodes>
        0 -1 887459 -1.7863763496279716e-03</internalNodes>
      <leafValues>
        -9.3628758192062378e-01 4.5630943775177002e-01</leafValues></_></weakClassifiers></stage6>
</opencv_storage>
