<?xml version="1.0"?>
<opencv_storage>
<cascade>
  <stageType>BOOST</stageType>
  <featureType>HAAR</featureType>
  <height>24</height>
  <width>72</width>
  <stageParams>
    <boostType>GAB</boostType>
    <minHitRate>9.9500000476837158e-01</minHitRate>
    <maxFalseAlarm>7.9999998211860657e-02</maxFalseAlarm>
    <weightTrimRate>9.4999999999999996e-01</weightTrimRate>
    <maxDepth>1</maxDepth>
    <maxWeakCount>100</maxWeakCount></stageParams>
  <featureParams>
    <maxCatCount>0</maxCatCount>
    <featSize>1</featSize>
    <mode>BASIC</mode></featureParams>
  <stageNum>8</stageNum>
  <stages>
    <!-- stage 0 -->
    <_>
      <maxWeakCount>2</maxWeakCount>
      <stageThreshold>-1.2599469721317291e-01</stageThreshold>
      <weakClassifiers>
        <_>
          <internalNodes>
            0 -1 15 -7.5589969754219055e-02</internalNodes>
          <leafValues>
            9.3034827709197998e-01 -9.6992480754852295e-01</leafValues></_>
        <_>
          <internalNodes>
            0 -1 14 3.5681620240211487e-02</internalNodes>
          <leafValues>
            -9.6589720249176025e-01 8.4393012523651123e-01</leafValues></_></weakClassifiers></_>
    <!-- stage 1 -->
    <_>
      <maxWeakCount>3</maxWeakCount>
      <stageThreshold>5.6167262792587280e-01</stageThreshold>
      <weakClassifiers>
        <_>
          <internalNodes>
            0 -1 33 -1.0687854228308424e-04</internalNodes>
          <leafValues>
            7.8280544281005859e-01 -9.8416888713836670e-01</leafValues></_>
        <_>
          <internalNodes>
            0 -1 23 -1.6732537915231660e-05</internalNodes>
          <leafValues>
            7.6957178115844727e-01 -9.8991423845291138e-01</leafValues></_>
        <_>
          <internalNodes>
            0 -1 26 -3.1687002046965063e-04</internalNodes>
          <leafValues>
            7.7626967430114746e-01 -9.8573827743530273e-01</leafValues></_></weakClassifiers></_>
    <!-- stage 2 -->
    <_>
      <maxWeakCount>4</maxWeakCount>
      <stageThreshold>-3.9471873641014099e-01</stageThreshold>
      <weakClassifiers>
        <_>
          <internalNodes>
            0 -1 29 -7.0699535310268402e-02</internalNodes>
          <leafValues>
            8.8601034879684448e-01 -9.1154789924621582e-01</leafValues></_>
        <_>
          <internalNodes>
            0 -1 6 -1.1801386717706919e-03</internalNodes>
          <leafValues>
            6.8487507104873657e-01 -9.3089747428894043e-01</leafValues></_>
        <_>
          <internalNodes>
            0 -1 34 1.3432001695036888e-02</internalNodes>
          <leafValues>
            -8.1693869829177856e-01 7.5818145275115967e-01</leafValues></_>
        <_>
          <internalNodes>
            0 -1 22 -8.7908271234482527e-04</internalNodes>
          <leafValues>
            6.8954521417617798e-01 -8.9072096347808838e-01</leafValues></_></weakClassifiers></_>
    <!-- stage 3 -->
    <_>
      <maxWeakCount>5</maxWeakCount>
      <stageThreshold>-1.2019714117050171e+00</stageThreshold>
      <weakClassifiers>
        <_>
          <internalNodes>
            0 -1 40 -4.8143202438950539e-03</internalNodes>
          <leafValues>
            7.3786407709121704e-01 -8.9340102672576904e-01</leafValues></_>
        <_>
          <internalNodes>
            0 -1 13 1.7929422855377197e-01</internalNodes>
          <leafValues>
            -9.1737359762191772e-01 6.1928272247314453e-01</leafValues></_>
        <_>
          <internalNodes>
            0 -1 38 -1.0415744967758656e-02</internalNodes>
          <leafValues>
            6.9478100538253784e-01 -7.6361083984375000e-01</leafValues></_>
        <_>
          <internalNodes>
            0 -1 36 -1.4634034596383572e-04</internalNodes>
          <leafValues>
            4.7414976358413696e-01 -9.8020923137664795e-01</leafValues></_>
        <_>
          <internalNodes>
            0 -1 7 1.1524775996804237e-02</internalNodes>
          <leafValues>
            -7.3300081491470337e-01 6.6321623325347900e-01</leafValues></_></weakClassifiers></_>
    <!-- stage 4 -->
    <_>
      <maxWeakCount>7</maxWeakCount>
      <stageThreshold>-5.4354321956634521e-01</stageThreshold>
      <weakClassifiers>
        <_>
          <internalNodes>
            0 -1 21 -5.0878807902336121e-02</internalNodes>
          <leafValues>
            5.9798997640609741e-01 -7.9551124572753906e-01</leafValues></_>
        <_>
          <internalNodes>
            0 -1 5 2.2055031731724739e-03</internalNodes>
          <leafValues>
            -8.5430049896240234e-01 5.1518177986145020e-01</leafValues></_>
        <_>
          <internalNodes>
            0 -1 37 -1.3464186849887483e-05</internalNodes>
          <leafValues>
            5.2383828163146973e-01 -8.3067661523818970e-01</leafValues></_>
        <_>
          <internalNodes>
            0 -1 0 -9.3305660411715508e-03</internalNodes>
          <leafValues>
            6.4862805604934692e-01 -6.8207150697708130e-01</leafValues></_>
        <_>
          <internalNodes>
            0 -1 9 1.8327299039810896e-03</internalNodes>
          <leafValues>
            -9.1599386930465698e-01 5.0124806165695190e-01</leafValues></_>
        <_>
          <internalNodes>
            0 -1 24 -1.8837365496437997e-04</internalNodes>
          <leafValues>
            3.6596235632896423e-01 -9.7777706384658813e-01</leafValues></_>
        <_>
          <internalNodes>
            0 -1 19 -2.3799959308234975e-05</internalNodes>
          <leafValues>
            4.4484734535217285e-01 -8.9207071065902710e-01</leafValues></_></weakClassifiers></_>
    <!-- stage 5 -->
    <_>
      <maxWeakCount>6</maxWeakCount>
      <stageThreshold>-5.7008022069931030e-01</stageThreshold>
      <weakClassifiers>
        <_>
          <internalNodes>
            0 -1 31 -7.1239039301872253e-02</internalNodes>
          <leafValues>
            5.4205608367919922e-01 -8.1865286827087402e-01</leafValues></_>
        <_>
          <internalNodes>
            0 -1 12 -2.1471783518791199e-02</internalNodes>
          <leafValues>
            6.9159471988677979e-01 -6.5315192937850952e-01</leafValues></_>
        <_>
          <internalNodes>
            0 -1 25 6.6061764955520630e-03</internalNodes>
          <leafValues>
            -9.2613869905471802e-01 4.5513471961021423e-01</leafValues></_>
        <_>
          <internalNodes>
            0 -1 11 1.5344331040978432e-03</internalNodes>
          <leafValues>
            -9.2489665746688843e-01 3.8806974887847900e-01</leafValues></_>
        <_>
          <internalNodes>
            0 -1 4 -6.7687053233385086e-03</internalNodes>
          <leafValues>
            5.7647144794464111e-01 -6.9420886039733887e-01</leafValues></_>
        <_>
          <internalNodes>
            0 -1 20 4.3287623673677444e-02</internalNodes>
          <leafValues>
            -4.8142459988594055e-01 9.5409381389617920e-01</leafValues></_></weakClassifiers></_>
    <!-- stage 6 -->
    <_>
      <maxWeakCount>7</maxWeakCount>
      <stageThreshold>-3.2128763198852539e-01</stageThreshold>
      <weakClassifiers>
        <_>
          <internalNodes>
            0 -1 35 -3.6912509240210056e-03</internalNodes>
          <leafValues>
            5.3110045194625854e-01 -7.9539644718170166e-01</leafValues></_>
        <_>
          <internalNodes>
            0 -1 32 8.9089870452880859e-03</internalNodes>
          <leafValues>
            -8.5631865262985229e-01 4.2503869533538818e-01</leafValues></_>
        <_>
          <internalNodes>
            0 -1 2 -9.8200626671314240e-02</internalNodes>
          <leafValues>
            6.1667722463607788e-01 -6.4753454923629761e-01</leafValues></_>
        <_>
          <internalNodes>
            0 -1 30 7.1177110075950623e-03</internalNodes>
          <leafValues>
            -7.8683513402938843e-01 5.8013355731964111e-01</leafValues></_>
        <_>
          <internalNodes>
            0 -1 3 8.6545394733548164e-03</internalNodes>
          <leafValues>
            -6.8967032432556152e-01 6.4356213808059692e-01</leafValues></_>
        <_>
          <internalNodes>
            0 -1 1 -8.6317621171474457e-03</internalNodes>
          <leafValues>
            4.4715473055839539e-01 -8.4827971458435059e-01</leafValues></_>
        <_>
          <internalNodes>
            0 -1 27 -1.7863763496279716e-03</internalNodes>
          <leafValues>
            -9.3628758192062378e-01 4.5630943775177002e-01</leafValues></_></weakClassifiers></_>
    <!-- stage 7 -->
    <_>
      <maxWeakCount>7</maxWeakCount>
      <stageThreshold>-7.6672440767288208e-01</stageThreshold>
      <weakClassifiers>
        <_>
          <internalNodes>
            0 -1 8 -1.1668179184198380e-02</internalNodes>
          <leafValues>
            5.6000000238418579e-01 -7.7999997138977051e-01</leafValues></_>
        <_>
          <internalNodes>
            0 -1 39 -8.2262174692004919e-04</internalNodes>
          <leafValues>
            5.5610609054565430e-01 -7.4356287717819214e-01</leafValues></_>
        <_>
          <internalNodes>
            0 -1 17 -3.0505093745887280e-03</internalNodes>
          <leafValues>
            3.8492611050605774e-01 -9.5353639125823975e-01</leafValues></_>
        <_>
          <internalNodes>
            0 -1 18 -2.2545387037098408e-04</internalNodes>
          <leafValues>
            -9.7817331552505493e-01 3.0819591879844666e-01</leafValues></_>
        <_>
          <internalNodes>
            0 -1 10 7.6938313213759102e-06</internalNodes>
          <leafValues>
            -8.7190592288970947e-01 3.8641789555549622e-01</leafValues></_>
        <_>
          <internalNodes>
            0 -1 16 5.9515651082620025e-04</internalNodes>
          <leafValues>
            5.8687323331832886e-01 -7.3499828577041626e-01</leafValues></_>
        <_>
          <internalNodes>
            0 -1 28 1.1335899216646794e-05</internalNodes>
          <leafValues>
            -8.2756918668746948e-01 4.1229683160781860e-01</leafValues></_></weakClassifiers></_></stages>
  <features>
    <_>
      <rects>
        <_>
          0 0 8 9 -1.</_>
        <_>
          4 0 4 9 2.</_></rects>
      <tilted>0</tilted></_>
    <_>
      <rects>
        <_>
          0 0 22 8 -1.</_>
        <_>
          11 0 11 8 2.</_></rects>
      <tilted>0</tilted></_>
    <_>
      <rects>
        <_>
          0 8 69 12 -1.</_>
        <_>
          23 8 23 12 3.</_></rects>
      <tilted>0</tilted></_>
    <_>
      <rects>
        <_>
          0 16 6 8 -1.</_>
        <_>
          0 20 6 4 2.</_></rects>
      <tilted>0</tilted></_>
    <_>
      <rects>
        <_>
          0 17 6 7 -1.</_>
        <_>
          3 17 3 7 2.</_></rects>
      <tilted>0</tilted></_>
    <_>
      <rects>
        <_>
          0 18 6 6 -1.</_>
        <_>
          0 21 6 3 2.</_></rects>
      <tilted>0</tilted></_>
    <_>
      <rects>
        <_>
          0 20 8 3 -1.</_>
        <_>
          4 20 4 3 2.</_></rects>
      <tilted>0</tilted></_>
    <_>
      <rects>
        <_>
          1 0 10 16 -1.</_>
        <_>
          1 0 5 8 2.</_>
        <_>
          6 8 5 8 2.</_></rects>
      <tilted>0</tilted></_>
    <_>
      <rects>
        <_>
          1 0 6 8 -1.</_>
        <_>
          1 4 6 4 2.</_></rects>
      <tilted>0</tilted></_>
    <_>
      <rects>
        <_>
          2 7 33 6 -1.</_>
        <_>
          2 9 33 2 3.</_></rects>
      <tilted>0</tilted></_>
    <_>
      <rects>
        <_>
          3 15 49 3 -1.</_>
        <_>
          3 16 49 1 3.</_></rects>
      <tilted>0</tilted></_>
    <_>
      <rects>
        <_>
          5 10 31 6 -1.</_>
        <_>
          5 12 31 2 3.</_></rects>
      <tilted>0</tilted></_>
    <_>
      <rects>
        <_>
          7 18 57 4 -1.</_>
        <_>
          7 20 57 2 2.</_></rects>
      <tilted>0</tilted></_>
    <_>
      <rects>
        <_>
          8 4 59 18 -1.</_>
        <_>
          8 10 59 6 3.</_></rects>
      <tilted>0</tilted></_>
    <_>
      <rects>
        <_>
          10 4 51 8 -1.</_>
        <_>
          10 8 51 4 2.</_></rects>
      <tilted>0</tilted></_>
    <_>
      <rects>
        <_>
          11 5 27 17 -1.</_>
        <_>
          20 5 9 17 3.</_></rects>
      <tilted>0</tilted></_>
    <_>
      <rects>
        <_>
          11 22 32 1 -1.</_>
        <_>
          27 22 16 1 2.</_></rects>
      <tilted>0</tilted></_>
    <_>
      <rects>
        <_>
          13 0 12 12 -1.</_>
        <_>
          19 0 6 12 2.</_></rects>
      <tilted>0</tilted></_>
    <_>
      <rects>
        <_>
          14 13 29 3 -1.</_>
        <_>
          14 14 29 1 3.</_></rects>
      <tilted>0</tilted></_>
    <_>
      <rects>
        <_>
          16 4 2 12 -1.</_>
        <_>
          17 4 1 12 2.</_></rects>
      <tilted>0</tilted></_>
    <_>
      <rects>
        <_>
          16 20 37 4 -1.</_>
        <_>
          16 22 37 2 2.</_></rects>
      <tilted>0</tilted></_>
    <_>
      <rects>
        <_>
          17 8 15 11 -1.</_>
        <_>
          22 8 5 11 3.</_></rects>
      <tilted>0</tilted></_>
    <_>
      <rects>
        <_>
          17 15 10 1 -1.</_>
        <_>
          22 15 5 1 2.</_></rects>
      <tilted>0</tilted></_>
    <_>
      <rects>
        <_>
          18 17 2 7 -1.</_>
        <_>
          19 17 1 7 2.</_></rects>
      <tilted>0</tilted></_>
    <_>
      <rects>
        <_>
          19 16 9 2 -1.</_>
        <_>
          19 17 9 1 2.</_></rects>
      <tilted>0</tilted></_>
    <_>
      <rects>
        <_>
          25 4 15 9 -1.</_>
        <_>
          30 4 5 9 3.</_></rects>
      <tilted>0</tilted></_>
    <_>
      <rects>
        <_>
          25 17 10 2 -1.</_>
        <_>
          25 18 10 1 2.</_></rects>
      <tilted>0</tilted></_>
    <_>
      <rects>
        <_>
          27 2 6 22 -1.</_>
        <_>
          27 2 3 11 2.</_>
        <_>
          30 13 3 11 2.</_></rects>
      <tilted>0</tilted></_>
    <_>
      <rects>
        <_>
          28 6 10 4 -1.</_>
        <_>
          33 6 5 4 2.</_></rects>
      <tilted>0</tilted></_>
    <_>
      <rects>
        <_>
          32 5 27 16 -1.</_>
        <_>
          41 5 9 16 3.</_></rects>
      <tilted>0</tilted></_>
    <_>
      <rects>
        <_>
          33 4 12 17 -1.</_>
        <_>
          37 4 4 17 3.</_></rects>
      <tilted>0</tilted></_>
    <_>
      <rects>
        <_>
          37 7 21 14 -1.</_>
        <_>
          44 7 7 14 3.</_></rects>
      <tilted>0</tilted></_>
    <_>
      <rects>
        <_>
          42 5 15 6 -1.</_>
        <_>
          42 8 15 3 2.</_></rects>
      <tilted>0</tilted></_>
    <_>
      <rects>
        <_>
          43 15 6 2 -1.</_>
        <_>
          43 16 6 1 2.</_></rects>
      <tilted>0</tilted></_>
    <_>
      <rects>
        <_>
          45 4 15 15 -1.</_>
        <_>
          50 4 5 15 3.</_></rects>
      <tilted>0</tilted></_>
    <_>
      <rects>
        <_>
          55 0 5 6 -1.</_>
        <_>
          55 2 5 2 3.</_></rects>
      <tilted>0</tilted></_>
    <_>
      <rects>
        <_>
          57 17 11 2 -1.</_>
        <_>
          57 18 11 1 2.</_></rects>
      <tilted>0</tilted></_>
    <_>
      <rects>
        <_>
          59 3 2 7 -1.</_>
        <_>
          60 3 1 7 2.</_></rects>
      <tilted>0</tilted></_>
    <_>
      <rects>
        <_>
          63 0 8 14 -1.</_>
        <_>
          63 0 4 7 2.</_>
        <_>
          67 7 4 7 2.</_></rects>
      <tilted>0</tilted></_>
    <_>
      <rects>
        <_>
          64 0 6 8 -1.</_>
        <_>
          66 0 2 8 3.</_></rects>
      <tilted>0</tilted></_>
    <_>
      <rects>
        <_>
          71 0 1 18 -1.</_>
        <_>
          71 9 1 9 2.</_></rects>
      <tilted>0</tilted></_></features></cascade>
</opencv_storage>
